0.067082636
-0.011182299
-0.17360753
-0.09886413
-0.054224662
-0.131064
-0.022504114
0.099752575
-0.043576643
-0.19181417
-0.13083969
-0.14036025
-0.16763742
-0.11502184
-0.16112487
-0.19800474
0.13473392
-0.23135002
0.008769971
0.018404251
-0.09247285
-0.11159554
-0.19792454
-0.131771
-0.21466671
-0.13904713
-0.072911724
-0.006989143
-0.13602929
-0.1403878
-0.21838287
-0.07516554
-0.20415092
-0.1280452
-0.10326734
-0.14775516
0.060453374
-0.058459334
0.06904221
-0.03231966
0.040064916
-0.07782669
-0.09515895
-0.07512559
-0.081370644
-0.0758192
-0.064484484
-0.04287933
-0.19259042
-0.10209609
0.14733969
-0.064040594
-0.071723446
-0.19980814
-0.032117825
-0.13781354
0.05332642
-0.06891333
0.076122954
-0.0054064756
-0.11075655
-0.024546538
-0.034575827
-0.07533997
-0.08088028
-0.04741836
-0.05499305
0.10387771
0.080475375
-0.17227198
-0.09642763
-0.026986798
-0.0019650173
0.01506756
-0.13058865
-0.07134998
-0.047365736
0.018085685
-0.035223436
-0.022030855
-0.01654494
0.0539436
-0.075973965
-0.20444608
-0.19516475
-0.039227918
0.104167275
-0.12322987
-0.077184185
0.08454665
-0.050553728
0.040527944
-0.108465545
-0.01599548
-0.040650204
-0.0076006926
-0.08007941
-0.09900119
-0.10873268
-0.042936284
-0.15414435
0.15903465
0.111608334
-0.06591079
-0.021466471
-0.12689845
-0.011077535
-0.09688672
-0.042958893
0.11249455
0.09083433
-0.11939805
-0.04614242
0.036353868
-0.07622348
0.10693399
-0.0343903
0.041120674
-0.11557371
0.053952735
-0.06392962
0.13971816
-0.044819392
-0.023948997
0.08451446
-0.042961184
0.14618914
-0.0432075
0.19843549
0.00083167024
-0.08047632
-0.0063283043
0.113015376
0.2346033
-0.043193035
-0.11187369
-0.15975088
-0.031722296
0.04233382
-0.03060595
0.14143538
0.03264099
-0.034595177
0.07851754
-0.008446274
-0.07251844
-0.035989948
0.05398303
-0.02528952
-0.022793386
-0.2141342
-0.044201747
-0.11335754
-0.12653308
-0.035213947
0.09899772
0.10883272
-0.03336991
0.057951014
0.14332551
-0.0066785254
-0.007733984
0.059412315
0.10624055
-0.0706507
-0.02707252
0.11537261
-0.070532635
0.033413947
-0.0341323
0.0059093917
0.031915903
-0.027187746
-0.047771208
0.06079971
0.047437765
-0.12014758
-0.01880217
-0.05623773
0.12315829
-0.0009401468
-0.08998101
0.012640342
-0.08946823
-0.031650934
0.057702925
-0.03876956
-0.027534112
-0.052504618
-0.0725603
-0.022331608
0.14436
-0.017293952
0.15104696
0.085953556
-0.14137693
-0.012234991
